[0.09570523777574523, 0.0818103519973181, 0.05786710996702393, 0.05395816295489918, 0.04975602380767629, 0.048147420584264126, 0.04709740591584521, 0.04702491594667478, 0.04697542668833009, 0.046974864226338446, 0.04637792364597448, 0.04593549041221189, 0.045460162076205075, 0.045350092270218675, 0.045322002257143994, 0.04465495422944686, 0.04435759003270677, 0.044195462663157645, 0.043466749612964026, 0.04342544053641349, 0.0431322443489197, 0.04289239336353044, 0.04273933201179157, 0.04270192722663501, 0.042280780419559405, 0.04172078240512188, 0.04165571997450011, 0.04165252690225439, 0.0411341479584506, 0.040787543742203385, 0.040591913060995286, 0.04028068071748368, 0.039888227765555555, 0.039880019403579645, 0.03964790441772202, 0.03941675253048704, 0.03928466987075517, 0.039016355334967376, 0.038889002856074315, 0.03852551891532018, 0.038494118562873866, 0.03819551118873986, 0.03752087604403708, 0.03726933088682814, 0.037242334301025734, 0.03724074001138321, 0.03723094264250792, 0.03656210713427731, 0.03548294324969969, 0.03546807142880492, 0.03546780888315037, 0.03546320650708434, 0.03545014002555557, 0.034976786063809155, 0.03497092827458136, 0.03494576647371261, 0.03458177029223563, 0.03413098981440232, 0.034086365398273026, 0.03385058946152885, 0.03382188793332052, 0.03379071806559541, 0.03378762951195346, 0.03375506836893937, 0.03372635291091019, 0.033723096119522504, 0.0337085616338506, 0.0336911279446419, 0.0336877155978279, 0.0336862720560227, 0.032948213917419415, 0.032896320310695656, 0.03288527673240936, 0.0325154524961505, 0.03199199274778552, 0.03182404629096458, 0.031754619918317295, 0.03154419323792867, 0.031284833667010056, 0.031264747221862885, 0.031224600117562333, 0.031031445294425468, 0.031031445294425468, 0.031029744952243747, 0.03043119153499773, 0.030352904376328864, 0.03027930122566124, 0.030211831387120244, 0.03009185324251673, 0.030058316518815072, 0.029941686643550007, 0.029270094092842192, 0.029270094092842192, 0.029261235407082135, 0.029261235407082135, 0.029246217620814245, 0.029113839248717573, 0.02890676904263145, 0.028872179806457614, 0.0288490700584667, 0.028486480175896386, 0.028477087722247767, 0.02843863462095086, 0.02836327353844225, 0.028254476092515295, 0.028239300132954274, 0.028087982891054183, 0.02802548686344341, 0.027996714525615578, 0.027933491168768858, 0.027821088508462315, 0.027759750817894717, 0.027646207694887896, 0.02751970305365791, 0.027479607565455415, 0.027476645310743668, 0.027280558853448815, 0.026701033556556057, 0.026697945002914114, 0.026688920964325503, 0.026675042468078163, 0.026416089007408435, 0.025721351199448957, 0.02557248240307064, 0.025290074232846124, 0.025105163191558418, 0.02496174920357907, 0.02488917181320404, 0.02484081102041502, 0.02483954559553558, 0.02483551368671444, 0.024817917541288367, 0.024815132477290277, 0.02465099642992163, 0.024236444521734006, 0.024222870119923294, 0.024222658593283534, 0.024219509325997472, 0.024202500872855578, 0.024142776131123804, 0.02404405096145956, 0.023995534916669503, 0.023988137981144513, 0.02394603089029578, 0.023944959209041824, 0.02393712322551755, 0.023933952033952204, 0.023932117022435247, 0.02392798018171993, 0.023917315607463456, 0.023860292117075403, 0.023484997527897677, 0.02344955264218284, 0.023282292838172396, 0.023186595578949414, 0.02306825640297982, 0.02306651520868896, 0.022448107880541517, 0.022366329402626832, 0.022231087165187506, 0.022215176213854153, 0.02217616073742234, 0.02215714786175382, 0.022155984945959935, 0.022051002147105862, 0.022027651387230836, 0.02202764014855096, 0.021880136643500407, 0.021802890711893667, 0.021707940309039657, 0.021573863851569, 0.021486849408444357, 0.0214656503966184, 0.02143922628679906, 0.021416831136645158, 0.021383770174776547, 0.02137542088972299, 0.021343505752935418, 0.02132253161913144, 0.021309040680404394, 0.02127391168538128, 0.02127070028289512, 0.021269880430662795, 0.021168372100592192, 0.02094351757306722, 0.020935306890794363, 0.020818717528061297, 0.02066885788410966, 0.020407926408995466, 0.020406010371050273, 0.02039251920494955, 0.020319745911137384, 0.020278581019846025, 0.020230279429705116, 0.020179762258380918, 0.02001316060533864, 0.019980782157398066, 0.019951292526564794, 0.019897837753995555, 0.019849873471111112]
[-0.08447659570084183, -0.05995025407720671, -0.05782983872089893, -0.053395018327156325, -0.04891699613109834, -0.04891699613109834, -0.04891699613109834, -0.04770219568492745, -0.04669965725589857, -0.046380721352803286, -0.045039610971839346, -0.04495725873907292, -0.04291979491974334, -0.042483575663974996, -0.04242665220958043, -0.041795394847250505, -0.04161495494012438, -0.041190097048493995, -0.040355418352227515, -0.04021080631358935, -0.039216264544940385, -0.03810595354846518, -0.03788241396799752, -0.03580847108426633, -0.03513687462694576, -0.034831734439680406, -0.0347250435043247, -0.03451322796175588, -0.03447318085457879, -0.03437058957755054, -0.03431147354241194, -0.03403133978830138, -0.03388332434227178, -0.033860917548755434, -0.03356631494355807, -0.03347771340671298, -0.0334772912172829, -0.03252788526290938, -0.0325239966150843, -0.031960912689128734, -0.031797944562669274, -0.031788843751229715, -0.03164643906532683, -0.03162123839140854, -0.031613602435783386, -0.03158766125309876, -0.03158296663971805, -0.03157018526420098, -0.03156589910852881, -0.03156589910852881, -0.03118705289673976, -0.03099428262797169, -0.03093845063632522, -0.03086649658510446, -0.030650339642334573, -0.0300695901660454, -0.029693420050561685, -0.02966377338546371, -0.02963196109340755, -0.02902549033025157, -0.029002068644355616, -0.028999635645970932, -0.0280345816554707, -0.027586018164608258, -0.027212100947522487, -0.027130346614306213, -0.02712538452762866, -0.027099393393678634, -0.026833713414841195, -0.02680922119000273, -0.0267955690051332, -0.026547488958409103, -0.025832524191651624, -0.025829128299870514, -0.025299140641448836, -0.025299140641448836, -0.025082173906434788, -0.02503948458799993, -0.024956221062916326, -0.02495352775806607, -0.02495352775806607, -0.024890569200601773, -0.024665152173859416, -0.024379545016949, -0.024226835850662487, -0.02418221295558748, -0.024171810751817124, -0.02414832623619342, -0.02414066191706562, -0.02411238054084958, -0.024092220070109638, -0.024024508786191168, -0.023953906978953332, -0.023938284239215013, -0.0239255604792778, -0.02377814734065661, -0.02357667884827263, -0.023346917310866876, -0.023346917310866876, -0.0233381290600145, -0.02333567612004986, -0.02332027315971403, -0.023139058728723207, -0.023088997899342677, -0.02305199862896453, -0.023035409045426523, -0.023005485258202417, -0.022998114611275843, -0.02299056851554534, -0.022977843744250017, -0.02297531777005398, -0.022960339470521753, -0.022848507322143597, -0.022848507322143597, -0.02248697712459212, -0.022362545123562047, -0.02231448701606674, -0.02231063643377816, -0.02220277472772246, -0.022192523578288277, -0.02218356877531001, -0.022082894711294973, -0.022069822129216807, -0.02204164644537919, -0.022036520416824676, -0.02202736589608499, -0.02201193216116913, -0.02190744003384771, -0.021592763656391074, -0.02155705756378757, -0.021545225174140835, -0.02151854721161644, -0.021473220029301545, -0.021473220029301545, -0.021423333611911406, -0.021409547476670017, -0.021406483838309256, -0.021348868160219477, -0.02125549286940532, -0.02125176263145568, -0.021222189152486866, -0.021220957245551293, -0.021196874233301972, -0.021184318840842938, -0.021171319076548574, -0.021140005559592286, -0.021127607145918777, -0.021110620105920137, -0.021082171981125615, -0.021070871300272305, -0.02106316610481463, -0.02105012342646751, -0.021047786464824643, -0.02104657595511617, -0.021046249014963003, -0.02044405770904636, -0.020358375886662585, -0.02034586272386154, -0.020254252029208192, -0.020254252029208192, -0.020239669831444228, -0.020158504923547337, -0.020115920780899653, -0.02011183080141394, -0.02011026869151469, -0.020105096429706502, -0.020104579212802533, -0.020097792820724904, -0.02009130209218715, -0.020091250041350615, -0.020089542945715994, -0.020087167320771225, -0.020070053138629855, -0.019766082894435592, -0.01973238524080361, -0.01970929106029789, -0.01970929106029789, -0.019591437776415744, -0.019485912187535342, -0.019407247025828016, -0.01937529407588872, -0.01927868964959829, -0.019263943766435747, -0.019180090515891694, -0.019175286008266172, -0.019175286008266172, -0.019175231111165973, -0.019163194145238864, -0.019148198365673212, -0.019145393387606506, -0.019144267203973043, -0.019134758473700546, -0.01913318110225109, -0.01913225007389801, -0.01913220528287556, -0.01913117439018524, -0.019130877631272684, -0.019130652236998773, -0.019067514595022865, -0.018794221034124724]