[0.08060607042911387, 0.050681983645264404, 0.04998782255504972, 0.04955249437123763, 0.04816532536339435, 0.04772825640442706, 0.04763598912805454, 0.04684153900294984, 0.046728505458910496, 0.04429648704531799, 0.04382977363469935, 0.04382977363469935, 0.04230677637609441, 0.04078377911748948, 0.04078377911748948, 0.03979629806282311, 0.03964485258649503, 0.039260781858884555, 0.03876243269335083, 0.038277399372622145, 0.03806522552188091, 0.036889339588800044, 0.036067524648675964, 0.035959517724098236, 0.03591976066933346, 0.03586032313875255, 0.03579288370707828, 0.035730851906382324, 0.03555374338872132, 0.03548935389959586, 0.03538268443195482, 0.035308423825757176, 0.03516167299936858, 0.03515711937039957, 0.03513048610590265, 0.03511895965026558, 0.03511353523468931, 0.03510875285688887, 0.03509962400390866, 0.03509240595564113, 0.035055359557066526, 0.035033633058322425, 0.035032806565926125, 0.03502994658434834, 0.034947109956321484, 0.03455592374133802, 0.03436774224474223, 0.03428588800302903, 0.03427067948397018, 0.03374014313154119, 0.03357867660084237, 0.0335414347100196, 0.03353210269047493, 0.0335142850016892, 0.03351386095706046, 0.033508324904874896, 0.033508324904874896, 0.03289064581122378, 0.03286022478505631, 0.03283494134894002, 0.032745579385507456, 0.03236020442769, 0.03236020442769, 0.03236020442769, 0.031797211504752065, 0.03160301266520209, 0.03148813423664601, 0.031152626523309565, 0.031055868859895683, 0.03091340051663964, 0.030845296253290452, 0.030845296253290452, 0.030736804032259795, 0.030576547347793068, 0.03049532871422515, 0.030467866439850593, 0.0304655318174281, 0.03046290800411215, 0.030462010280772927, 0.030295434383050032, 0.030169769310603167, 0.03001339512837907, 0.029890649577908643, 0.029802325433309622, 0.02977955182422042, 0.029705442889991215, 0.02970034721721581, 0.029694162177506582, 0.02946197455388282, 0.02933807573469871, 0.029290056364729748, 0.029281477457729844, 0.029281477457729844, 0.029171033790803262, 0.02914678411546883, 0.029110564049219457, 0.029071359501572074, 0.02902525512693937, 0.029020500543297016, 0.029020500543297016, 0.028990093446950405, 0.028938976676485973, 0.02893817132518033, 0.02893812289606539, 0.02885428629249986, 0.028750962804278933, 0.028643647465088403, 0.02855701814799222, 0.028556092064107086, 0.0283924469202077, 0.028352168659495188, 0.028319293656551277, 0.028312240372343915, 0.028293169105182862, 0.028236581530819642, 0.028210333080807, 0.028195881000812047, 0.02819378112852177, 0.028193744272158476, 0.028180131173286323, 0.028178566122988965, 0.027856065216311076, 0.027856065216311076, 0.027856065216311076, 0.027565661341511893, 0.027551386625716715, 0.027455641659187402, 0.02745531742432622, 0.027452079379443328, 0.027436465076177866, 0.027435463707959296, 0.027432238325061642, 0.02742026419066651, 0.027416984772187514, 0.027415059980128442, 0.02741467529075653, 0.027271521074326885, 0.02717747866597542, 0.026958748915489328, 0.026958748915489328, 0.02675315488652958, 0.026467477867682287, 0.026418684956267553, 0.026415781432133925, 0.02637339176128135, 0.026051055444823404, 0.02593851915427932, 0.0258970734247856, 0.025894227855970356, 0.025874593091758144, 0.025511023630782358, 0.025421426324568085, 0.02527207519230347, 0.025270716596393922, 0.025129609607303274, 0.025062860730498425, 0.024892764974592828, 0.024753751275523893, 0.024539456308515138, 0.024536764407924704, 0.024535410477235963, 0.024530684168640876, 0.024479416154020793, 0.024273006530220263, 0.024243827970718862, 0.024017846496517413, 0.023969609516880118, 0.02384066095060913, 0.023808660386803203, 0.023690010138179753, 0.023621116298327215, 0.023607489546006912, 0.02335049802885071, 0.02324575535349724, 0.0231498390236142, 0.0231498390236142, 0.02305255302381412, 0.023043776152559453, 0.0230221306006628, 0.022915211465812185, 0.0228664719321445, 0.02286040494946648, 0.022855985351822178, 0.02285341300794827, 0.022849679971028686, 0.02284845183190229, 0.0228475489871984, 0.022845746063222955, 0.022608486890160626, 0.022475442066248227, 0.022097516241185864, 0.022097516241185864, 0.022089963060946384, 0.021823618350662696, 0.02178464273374568, 0.021707756758314028, 0.02159028450178023, 0.021547707838816967, 0.021525086100791055, 0.02150137410417239]
[-0.07003457032955894, -0.056303324913796, -0.053649011155859225, -0.05173776513627535, -0.05111490717748571, -0.050350567597414284, -0.050350567597414284, -0.05015122809715743, -0.05014484002684048, -0.05013193192096741, -0.04692512512540864, -0.04352164695779136, -0.041594414834363186, -0.04133646117217802, -0.041231249841043885, -0.041053053024338725, -0.04090255184925364, -0.04080754524651655, -0.040777326739739786, -0.04061857755365519, -0.04048251186028675, -0.04046672338605741, -0.04046638585438369, -0.04046035787947867, -0.04046035235839109, -0.04045487655806947, -0.04038661889540307, -0.04023640250129899, -0.039823570462439735, -0.03964913200526039, -0.03961809595330974, -0.03943120824781961, -0.038885612578535275, -0.038802885367618514, -0.03869776000515556, -0.03869556598481593, -0.03829412973309247, -0.037976436423466854, -0.03790953879533646, -0.03786080160088916, -0.037828640390305576, -0.03782674643034427, -0.037510428525120494, -0.03695002622478461, -0.03645112857454912, -0.03605749658373615, -0.03551928481304507, -0.03527648954898772, -0.03527648954898772, -0.035248525984780406, -0.03519997427001018, -0.035196120181563435, -0.035061578721295505, -0.03474218739787507, -0.03455031200544433, -0.034470748142916605, -0.034430088205557006, -0.03433996831633955, -0.03433379991590734, -0.03431505209962303, -0.03431274095808, -0.03430952118585516, -0.034300226141590215, -0.03382525455919586, -0.033550935503007175, -0.03349005280820321, -0.033481242604756524, -0.033462085048376146, -0.03345666132401585, -0.0334420556409091, -0.03343078287554727, -0.0332775146447268, -0.033101162545211296, -0.032983327139322616, -0.03265133425826502, -0.03255633693457934, -0.03254659250739063, -0.03254536293058049, -0.031983025446977516, -0.03170159073343482, -0.03170122218435379, -0.031678416761139916, -0.031193526648577715, -0.030818178545315926, -0.030401512959084314, -0.030117172188052748, -0.030059909950519752, -0.03004299588110003, -0.02999990877333035, -0.02992622158899026, -0.029429366607095678, -0.029168715208961825, -0.02905147309278635, -0.028956150164620942, -0.02870614305591919, -0.028530067205068677, -0.028372290193678443, -0.02824104851477789, -0.028142771558976452, -0.027841195400131854, -0.02751511334793455, -0.02749721674775052, -0.02738844648797383, -0.02736128835534024, -0.027358893495719405, -0.027344653842763966, -0.02732888772641735, -0.027294190431010668, -0.027291970865579662, -0.027272746198494735, -0.027262334015910415, -0.026927303599834793, -0.02667130493925733, -0.026629676217155878, -0.02653739875374676, -0.026482188256225433, -0.026482188256225433, -0.02645195202482946, -0.026409161049178412, -0.02593903210046586, -0.02593003633930233, -0.02576467250739109, -0.025633716383491788, -0.025568839809891084, -0.025514876587946798, -0.02550564182294432, -0.025503936018053206, -0.02550382825952932, -0.024978910990067903, -0.0249006542824294, -0.024836556719275336, -0.024657411281406322, -0.02465030079062595, -0.024646812718695447, -0.024634455810666055, -0.024634284963905313, -0.02463190102185888, -0.024631721343904584, -0.02462807007055869, -0.024624692756173204, -0.024563653083838698, -0.02426897991006689, -0.02412703043440747, -0.023843897868396753, -0.02375957940676527, -0.023593183282986575, -0.023468554510958785, -0.023370776617275484, -0.023305575364110927, -0.023274953157715432, -0.023212361994273893, -0.02311677243769198, -0.02294441866329166, -0.0229369340312131, -0.02288014927748904, -0.022874960806666282, -0.022872065639012222, -0.02286603556482291, -0.0222430241955354, -0.022085037609844295, -0.022085037609844295, -0.022085037609844295, -0.022085037609844295, -0.02201853925716394, -0.022000719148212812, -0.0219934309560759, -0.021992325164677896, -0.021992201379265754, -0.021986301533064835, -0.021986242751058017, -0.021850386075315087, -0.021705590180261712, -0.02128129940587161, -0.021256503786333557, -0.02124410652953731, -0.021131196658587502, -0.021107601901861305, -0.020569819149451204, -0.020402537927699183, -0.020331827154207123, -0.019988456607304028, -0.019988456607304028, -0.01983358936288531, -0.019412419406787004, -0.019373720014968582, -0.01936962633501643, -0.019362318570553535, -0.019358242895602226, -0.019357875035008684, -0.01935098353444736, -0.019347758325433725, -0.019088092860168264, -0.018850449658750105, -0.018700398442405602, -0.018665827075957195, -0.01859470958158547, -0.018572966895654672, -0.018480455690288205, -0.018478444905732458, -0.018469360030913803]