[0.009570523777574523, 0.00818103519973181, 0.005786710996702393, 0.005395816295489918, 0.004975602380767629, 0.0048147420584264125, 0.0047097405915845205, 0.004702491594667478, 0.004697542668833009, 0.0046974864226338444, 0.004637792364597448, 0.004593549041221189, 0.0045460162076205075, 0.004535009227021868, 0.0045322002257143995, 0.004465495422944686, 0.004435759003270677, 0.0044195462663157645, 0.004346674961296403, 0.0043425440536413494, 0.00431322443489197, 0.004289239336353045, 0.004273933201179157, 0.004270192722663501, 0.00422807804195594, 0.0041720782405121875, 0.004165571997450011, 0.004165252690225439, 0.00411341479584506, 0.004078754374220338, 0.004059191306099529, 0.004028068071748369, 0.0039888227765555555, 0.003988001940357965, 0.003964790441772202, 0.003941675253048704, 0.003928466987075517, 0.0039016355334967378, 0.0038889002856074316, 0.003852551891532018, 0.003849411856287387, 0.003819551118873986, 0.003752087604403708, 0.0037269330886828145, 0.0037242334301025738, 0.003724074001138321, 0.0037230942642507915, 0.003656210713427731, 0.0035482943249699685, 0.0035468071428804916, 0.003546780888315037, 0.0035463206507084337, 0.003545014002555557, 0.0034976786063809157, 0.003497092827458136, 0.003494576647371261, 0.003458177029223563, 0.003413098981440232, 0.0034086365398273027, 0.003385058946152885, 0.003382188793332052, 0.003379071806559541, 0.003378762951195346, 0.003375506836893937, 0.0033726352910910186, 0.00337230961195225, 0.00337085616338506, 0.00336911279446419, 0.0033687715597827896, 0.0033686272056022695, 0.0032948213917419413, 0.003289632031069566, 0.0032885276732409364, 0.00325154524961505, 0.0031991992747785517, 0.003182404629096458, 0.0031754619918317292, 0.0031544193237928665, 0.003128483366701006, 0.003126474722186289, 0.0031224600117562332, 0.0031031445294425466, 0.0031031445294425466, 0.0031029744952243746, 0.003043119153499773, 0.0030352904376328865, 0.003027930122566124, 0.0030211831387120243, 0.003009185324251673, 0.003005831651881507, 0.002994168664355001, 0.0029270094092842193, 0.0029270094092842193, 0.0029261235407082135, 0.0029261235407082135, 0.0029246217620814245, 0.0029113839248717573, 0.002890676904263145, 0.0028872179806457613, 0.0028849070058466703]
[-0.008447659570084183, -0.005995025407720671, -0.005782983872089894, -0.0053395018327156325, -0.004891699613109834, -0.004891699613109834, -0.004891699613109834, -0.004770219568492745, -0.004669965725589857, -0.004638072135280329, -0.004503961097183934, -0.004495725873907292, -0.004291979491974334, -0.0042483575663974996, -0.004242665220958043, -0.00417953948472505, -0.004161495494012438, -0.004119009704849399, -0.004035541835222751, -0.004021080631358935, -0.003921626454494039, -0.003810595354846518, -0.003788241396799752, -0.0035808471084266334, -0.003513687462694576, -0.0034831734439680407, -0.0034725043504324695, -0.003451322796175588, -0.003447318085457879, -0.003437058957755054, -0.0034311473542411935, -0.0034031339788301385, -0.003388332434227178, -0.003386091754875543, -0.0033566314943558073, -0.0033477713406712983, -0.00334772912172829, -0.0032527885262909383, -0.0032523996615084305, -0.0031960912689128736, -0.0031797944562669276, -0.003178884375122971, -0.0031646439065326835, -0.003162123839140854, -0.0031613602435783383, -0.003158766125309876, -0.0031582966639718056, -0.0031570185264200978, -0.0031565899108528814, -0.0031565899108528814, -0.003118705289673976, -0.003099428262797169, -0.003093845063632522, -0.003086649658510446, -0.0030650339642334574, -0.00300695901660454, -0.0029693420050561684, -0.002966377338546371, -0.002963196109340755, -0.002902549033025157, -0.0029002068644355616, -0.0028999635645970932, -0.00280345816554707, -0.002758601816460826, -0.0027212100947522485, -0.0027130346614306212, -0.002712538452762866, -0.0027099393393678634, -0.0026833713414841196, -0.002680922119000273, -0.00267955690051332, -0.0026547488958409103, -0.0025832524191651625, -0.0025829128299870515, -0.0025299140641448837, -0.0025299140641448837, -0.0025082173906434786, -0.002503948458799993, -0.0024956221062916325, -0.002495352775806607, -0.002495352775806607, -0.0024890569200601773, -0.0024665152173859416, -0.0024379545016949, -0.0024226835850662486, -0.002418221295558748, -0.0024171810751817124, -0.002414832623619342, -0.002414066191706562, -0.002411238054084958, -0.002409222007010964, -0.0024024508786191167, -0.0023953906978953334, -0.0023938284239215014, -0.00239255604792778, -0.002377814734065661, -0.002357667884827263, -0.0023346917310866876, -0.0023346917310866876, -0.00233381290600145]