[0.008060607042911387, 0.005068198364526441, 0.0049987822555049724, 0.0049552494371237635, 0.004816532536339435, 0.0047728256404427054, 0.0047635989128054545, 0.004684153900294984, 0.0046728505458910495, 0.004429648704531799, 0.004382977363469935, 0.004382977363469935, 0.004230677637609441, 0.004078377911748948, 0.004078377911748948, 0.003979629806282311, 0.003964485258649503, 0.003926078185888455, 0.003876243269335083, 0.003827739937262214, 0.0038065225521880905, 0.003688933958880004, 0.0036067524648675966, 0.0035959517724098236, 0.0035919760669333458, 0.003586032313875255, 0.0035792883707078285, 0.0035730851906382323, 0.0035553743388721318, 0.0035489353899595855, 0.0035382684431954814, 0.0035308423825757174, 0.0035161672999368576, 0.0035157119370399573, 0.003513048610590265, 0.0035118959650265584, 0.003511353523468931, 0.003510875285688887, 0.003509962400390866, 0.0035092405955641126, 0.0035055359557066524, 0.0035033633058322426, 0.0035032806565926124, 0.0035029946584348337, 0.003494710995632148, 0.003455592374133802, 0.003436774224474223, 0.0034285888003029027, 0.0034270679483970183, 0.003374014313154119, 0.003357867660084237, 0.00335414347100196, 0.0033532102690474927, 0.00335142850016892, 0.0033513860957060456, 0.0033508324904874894, 0.0033508324904874894, 0.0032890645811223776, 0.0032860224785056314, 0.003283494134894002, 0.0032745579385507454, 0.0032360204427689995, 0.0032360204427689995, 0.0032360204427689995, 0.003179721150475207, 0.0031603012665202086, 0.003148813423664601, 0.0031152626523309563, 0.003105586885989568, 0.003091340051663964, 0.0030845296253290454, 0.0030845296253290454, 0.0030736804032259796, 0.0030576547347793068, 0.003049532871422515, 0.0030467866439850594, 0.00304655318174281, 0.003046290800411215, 0.0030462010280772928, 0.0030295434383050034, 0.0030169769310603167, 0.003001339512837907, 0.0029890649577908645, 0.002980232543330962, 0.002977955182422042, 0.0029705442889991214, 0.002970034721721581, 0.002969416217750658, 0.002946197455388282, 0.002933807573469871, 0.0029290056364729747, 0.0029281477457729845, 0.0029281477457729845, 0.002917103379080326, 0.002914678411546883, 0.0029110564049219458, 0.002907135950157207, 0.0029025255126939368, 0.0029020500543297015, 0.0029020500543297015]
[-0.007003457032955894, -0.0056303324913796, -0.005364901115585923, -0.005173776513627535, -0.00511149071774857, -0.005035056759741428, -0.005035056759741428, -0.005015122809715743, -0.005014484002684048, -0.005013193192096741, -0.004692512512540864, -0.004352164695779136, -0.004159441483436319, -0.004133646117217802, -0.004123124984104389, -0.004105305302433872, -0.004090255184925364, -0.004080754524651655, -0.004077732673973979, -0.004061857755365519, -0.004048251186028675, -0.004046672338605741, -0.004046638585438369, -0.0040460357879478675, -0.0040460352358391094, -0.004045487655806947, -0.004038661889540307, -0.0040236402501299, -0.003982357046243974, -0.003964913200526039, -0.003961809595330974, -0.003943120824781961, -0.003888561257853527, -0.003880288536761851, -0.003869776000515556, -0.0038695565984815934, -0.003829412973309247, -0.0037976436423466857, -0.0037909538795336466, -0.0037860801600889155, -0.0037828640390305574, -0.0037826746430344267, -0.0037510428525120492, -0.0036950026224784613, -0.003645112857454912, -0.003605749658373615, -0.0035519284813045064, -0.0035276489548987716, -0.0035276489548987716, -0.0035248525984780403, -0.0035199974270010183, -0.0035196120181563433, -0.00350615787212955, -0.0034742187397875067, -0.003455031200544433, -0.0034470748142916606, -0.0034430088205557006, -0.003433996831633955, -0.003433379991590734, -0.0034315052099623032, -0.003431274095808, -0.003430952118585516, -0.003430022614159022, -0.0033825254559195863, -0.0033550935503007173, -0.0033490052808203214, -0.0033481242604756524, -0.0033462085048376147, -0.0033456661324015847, -0.00334420556409091, -0.003343078287554727, -0.00332775146447268, -0.00331011625452113, -0.0032983327139322616, -0.0032651334258265016, -0.0032556336934579343, -0.0032546592507390632, -0.003254536293058049, -0.0031983025446977514, -0.003170159073343482, -0.0031701222184353788, -0.003167841676113992, -0.0031193526648577714, -0.0030818178545315928, -0.0030401512959084315, -0.003011717218805275, -0.0030059909950519753, -0.0030042995881100027, -0.002999990877333035, -0.002992622158899026, -0.002942936660709568, -0.0029168715208961827, -0.002905147309278635, -0.002895615016462094, -0.002870614305591919, -0.0028530067205068677, -0.0028372290193678443, -0.0028241048514777893, -0.002814277155897645, -0.0027841195400131855]