[0.08372833632208684, 0.08103473362848417, 0.08027125498160771, 0.056953595899772974, 0.05367248108491352, 0.052145815431218774, 0.047590543958436884, 0.04593569288008319, 0.043886941168379885, 0.043848985575236754, 0.0435765362377412, 0.04352890630973888, 0.04344713322391816, 0.04332194308844799, 0.04317558490183608, 0.04316188026459593, 0.04311743363505109, 0.043102851291313235, 0.04309950226465724, 0.04309950226465724, 0.04309950226465724, 0.04199874550111983, 0.04188400418796502, 0.04184351369484486, 0.041828658488599305, 0.04180335910358392, 0.04175709391982875, 0.041757091023088125, 0.041646591045655434, 0.04051673522314901, 0.04043531634431362, 0.0404053146201011, 0.04034160053238324, 0.03973376998584857, 0.03963922383044206, 0.03935136711175919, 0.03813807637766256, 0.03800449653745001, 0.0374692085026591, 0.03637527091309479, 0.03632867460280991, 0.03632867460280991, 0.035760772446774496, 0.03573393062422852, 0.03572874761764993, 0.03569479167661498, 0.03569315109528375, 0.03569084803539695, 0.03446396917876121, 0.03383052039845231, 0.03364981072923477, 0.03348023606782157, 0.033458409126301596, 0.03326559571756259, 0.033213760407942584, 0.03306688400448842, 0.033025274336300973, 0.03301434214995901, 0.03300942838291598, 0.03300926536872361, 0.03291356676831993, 0.03291356676831993, 0.032750797249445, 0.0325359871667443, 0.03245979190496565, 0.032420777703645404, 0.032344128864405325, 0.032338058631193246, 0.0320917995151145, 0.03206427843585888, 0.03189763825524737, 0.03174895074356486, 0.031713548405229226, 0.0316148698890052, 0.031176817659421936, 0.031017265353135873, 0.030994565137944227, 0.030985259051327877, 0.030977229940127977, 0.030621354061144385, 0.030487973125700885, 0.03034759134568451, 0.030254482350277695, 0.029858427355497125, 0.029858427355497125, 0.029837047055911253, 0.029830705593189205, 0.02981610388130693, 0.029815156144171934, 0.029736947436025812, 0.029731038070598598, 0.029715649391140773, 0.02969605055156907, 0.029684331264865332, 0.029683567056485203, 0.029682774861134104, 0.029637829913075703, 0.0296311661059909, 0.02949005706060949, 0.02949005706060949, 0.02949005706060949, 0.029274746298363526, 0.029010256968756823, 0.029003266046782175, 0.02897624380413423, 0.028965432688817475, 0.02829559373309315, 0.028295060989295632, 0.028284116230212597, 0.027903391188794525, 0.027706336052511146, 0.02763935192233967, 0.027593553044146527, 0.026943870833064626, 0.026941092080732396, 0.026797401929518808, 0.026375280394579887, 0.026312127094291052, 0.026263079100578304, 0.02611499758506263, 0.02592810872841866, 0.025880983602416308, 0.02572928729308543, 0.025704609689579883, 0.025677579397903827, 0.025655627811953963, 0.025624016071684963, 0.02559561798774368, 0.02559029081067976, 0.0255894296420216, 0.025584133967964197, 0.025134418140242348, 0.024930045183810295, 0.024919315803645523, 0.024895601975026015, 0.024832758687511843, 0.024832758687511843, 0.0242723485553363, 0.0242723485553363, 0.02424998990593327, 0.024243481586858486, 0.02401099143430641, 0.02385467833565763, 0.02379710572032473, 0.023509288752006273, 0.023260441885536755, 0.023135861977527202, 0.023033598422363685, 0.0229741824140654, 0.022906445823456852, 0.02279076677518161, 0.022563385617427746, 0.022508206850357575, 0.022491184943151804, 0.022452123987346178, 0.022383664312979425, 0.022380358365222102, 0.022371149651331114, 0.022365645069253853, 0.022331110427654104, 0.022291881112646995, 0.022284610185345725, 0.022284305400131023, 0.022272676910102353, 0.02226341887613268, 0.02223636020822193, 0.022236001098786408, 0.022228386806869428, 0.022224799248629617, 0.02222300242412354, 0.022181537805629984, 0.02217610182259421, 0.022050944028927103, 0.021728784356855012, 0.021660838477464042, 0.021601338901563703, 0.021589718195797906, 0.021584847645316894, 0.021580850230565683, 0.021580773836648713, 0.021572149449456755, 0.021561137640491633, 0.021553139373099238, 0.021552330160647525, 0.021551964973741032, 0.021549285040423992, 0.021140061394583527, 0.021104900478871445, 0.02109662688166564, 0.02106248851185854, 0.02090534518833293, 0.02088991031200122, 0.020565479663388835, 0.02055090871425535, 0.02046800154646991, 0.020290067067150523, 0.02028951856180982, 0.020219052639344613, 0.02020666544666427, 0.020205970248923115]
[-0.08885727282663694, -0.06738592568306609, -0.05355943953693674, -0.051766040477446235, -0.051766040477446235, -0.051766040477446235, -0.051714874994688784, -0.05161598279505782, -0.05047187341918066, -0.050221846602292994, -0.050148637531132176, -0.050014108001075835, -0.04939332023743879, -0.04939312621902678, -0.04927307912009857, -0.04900618850338232, -0.048885996144646365, -0.04866344164879719, -0.04797054523521658, -0.04796975131910151, -0.04794391038092292, -0.04791686966643758, -0.04789180316095119, -0.047890908178828996, -0.047890207126272545, -0.04652383954610092, -0.04645542500449926, -0.046432843138721064, -0.04551863004931548, -0.045098437395218315, -0.04497642998337188, -0.04497084891642818, -0.04490084318110395, -0.04477237699704179, -0.044168535502644164, -0.04340708857027326, -0.043405607149377974, -0.04308895547911905, -0.04295931155415657, -0.041462753637365186, -0.041037582818266, -0.04041482403691904, -0.040396345199488023, -0.040396345199488023, -0.040396345199488023, -0.039788496900234616, -0.03966569377829482, -0.03879742384925865, -0.03879742384925865, -0.0384947597814361, -0.03657734419496002, -0.03636916607492336, -0.03616641687008851, -0.03616641687008851, -0.03599909881054956, -0.03599808190088553, -0.03599267980067126, -0.035971447046591866, -0.03596050681122179, -0.035933892849840415, -0.03591741064059321, -0.03551845592710748, -0.03551845592710748, -0.03530063691512645, -0.03523592633071552, -0.035177869172075805, -0.034946131604105236, -0.03465003856081609, -0.03460784438039269, -0.03454514755549468, -0.03453522480822727, -0.03449234118716419, -0.03443886559262325, -0.03442215920324913, -0.03368316941246277, -0.0334753702748928, -0.03313946343892141, -0.03300857778717883, -0.03294255869455057, -0.03294074673190309, -0.032936805002783974, -0.03227850424243618, -0.03196267237559528, -0.0311866313774073, -0.03091052646652604, -0.030840454813771997, -0.03074687807986555, -0.030732684909365322, -0.03072894885064959, -0.030685808413748582, -0.030684792903796897, -0.029936160044187102, -0.02993283327673181, -0.029931190619454057, -0.029346288443680042, -0.029304702387408576, -0.029189788360755153, -0.028977300328378447, -0.028634547081214497, -0.028515292316928627, -0.02843532011026551, -0.028422777443696055, -0.02830804858620975, -0.02815425421388091, -0.0279584557504845, -0.02788582011300467, -0.027881465687516024, -0.027772598005247787, -0.027767013358532933, -0.02769467463144093, -0.027689310977910723, -0.02768723502197734, -0.02768679699307175, -0.027653393242884506, -0.02755915864030822, -0.02728692627055562, -0.027192110022579034, -0.027182292353920553, -0.02704003478060468, -0.02698165996911694, -0.02698165996911694, -0.026945144130188333, -0.026908568009305987, -0.026605078987964707, -0.02649717446945138, -0.026239428321028872, -0.02621116504193754, -0.026191967440050694, -0.02544437524701603, -0.02544303323778873, -0.02544220427668275, -0.025391460684304007, -0.0250626134748143, -0.0250626134748143, -0.0250626134748143, -0.024938783062294696, -0.024774914434614204, -0.02476143893949266, -0.024746228586094533, -0.024729494534780114, -0.024721820815115078, -0.02470967818955049, -0.02470529649691687, -0.024705169053971784, -0.024700484925246003, -0.024643181725908313, -0.024491184226336764, -0.024252337594264307, -0.024206997406906895, -0.024025618566554486, -0.024025618566554486, -0.024012232427082936, -0.02394629968608807, -0.02394606016031285, -0.023277339608158795, -0.023265119557695706, -0.023197723392728613, -0.023196661413613304, -0.022726137966067567, -0.02253840671190597, -0.022454664373331303, -0.022398344850721244, -0.02233723242144068, -0.021740070245604398, -0.021336842433932277, -0.02122095479365535, -0.021217166668186935, -0.021204518929273865, -0.021188331538844894, -0.021082307826994027, -0.021033519642635754, -0.021030679277672066, -0.021015984679373025, -0.020978344231601033, -0.020957272150674642, -0.02095707515457699, -0.020952884262790492, -0.020284223774576032, -0.020203951578844664, -0.019823309125950393, -0.01973485066794474, -0.019537145429222216, -0.019535944816180338, -0.019502289426764543, -0.019491585834639915, -0.01946876903364733, -0.018889798387503452, -0.018877532330774903, -0.018801607662139196, -0.018773502333944665, -0.018759759424781988, -0.018757376930096874, -0.01873993885729249, -0.018726530455209632, -0.01871707407317843, -0.018709963477162438, -0.018708901409267474, -0.018707469422535615, -0.01870742132422095, -0.01870734665231851]