[0.010464346885415306, 0.005793824115315792, 0.004907063685091724, 0.004824373662172693, 0.004447506777609872, 0.004294497537519869, 0.0042066058540454355, 0.004108865916529588, 0.004071357948735869, 0.0040674420246189875, 0.00406668741536426, 0.003969292624075435, 0.003949538615773733, 0.0039452354197193566, 0.0038291098446588674, 0.0038291098446588674, 0.0037725197000297826, 0.003743194857159969, 0.003743194857159969, 0.003743194857159969, 0.003689711225009867, 0.003636173397169704, 0.003494527805809783, 0.00347668533121514, 0.0034250928286150228, 0.0034199630129245705, 0.0034165277353844503, 0.003411980784835039, 0.003410864079386927, 0.0033053854212766465, 0.0033027001414617395, 0.0032942051553569605, 0.003288784536375372, 0.003282969810056441, 0.003280657949375948, 0.003250427900201557, 0.0032497887365523005, 0.0032387910725219125, 0.003217812728011932, 0.0031724559166604605, 0.0031564851141546, 0.003099392452872912, 0.003097673533225182, 0.003091014034157474, 0.0030867925468327896, 0.0030838862130394273, 0.0030834886689035056, 0.0030829681920749364, 0.0030689831517839166, 0.003061933077220131, 0.0030615714073383544, 0.0030600586135142776, 0.0030408074817706195, 0.0030338395649187563, 0.0030330038848069792, 0.003027955121829157, 0.003025288254170894, 0.003025227510838752, 0.003024727020269941, 0.0030237635263211386, 0.0030205501229238992, 0.0030204389721212037, 0.0030198781811441706, 0.0030197391043066575, 0.003017580225227951, 0.0030173132425580233, 0.0030172617970811674, 0.00300857411993562, 0.0030037703142769836, 0.0029978658108076707, 0.0029931800617837277, 0.002963788426764186, 0.00292822837225568, 0.0028647984832927027, 0.0028473265828101676, 0.002842627035366036, 0.002836713761294391, 0.002835009410423823, 0.0028328931661375243, 0.002827337838621475, 0.0028273167067675202, 0.0028242690252367315, 0.00278670139184713, 0.002775422560330738, 0.002763318698521728, 0.0027584194419209627, 0.0027071511773062397, 0.0027050014461526173, 0.0026895659700226955, 0.002689287516970435, 0.0026698292595536315, 0.0026698292595536315, 0.0026698292595536315, 0.00264932378704152, 0.0026487791932556307, 0.0026433772851266425, 0.002642919886019167, 0.002640255630099726, 0.0026363611097583073, 0.0026282982236042816]
[-0.00857027415314464, -0.007595564100515784, -0.007563966954722948, -0.007271361090919335, -0.005935914356100534, -0.005448465096037049, -0.004934139497363534, -0.004785702260807104, -0.004785702260807104, -0.004028032722654904, -0.003978992824348793, -0.003884542301819979, -0.0038830299050539585, -0.003718462862358959, -0.0035193366500675554, -0.003512206704576837, -0.0034530420551448534, -0.003444718569181807, -0.0033895832715928028, -0.0033393465724885045, -0.003230513563191861, -0.003139530593426845, -0.0031344553961674157, -0.0031332679671607386, -0.003133262365037173, -0.0031326787091814387, -0.0031323786444148044, -0.003131744452031218, -0.003131481347674073, -0.0031313572188822053, -0.003102020274686788, -0.0030419871696978334, -0.0030419871696978334, -0.003016552986837314, -0.003016552986837314, -0.0030064823004341177, -0.0029679588582707077, -0.0029430363607969405, -0.0029430344249047826, -0.0029182302914967278, -0.0028940457230675494, -0.0028863090334460125, -0.002883806034905136, -0.0028808864132577566, -0.0028805045540969314, -0.0028804471219280444, -0.0028615572539167004, -0.002850516181224551, -0.002847633576882956, -0.002832981155941681, -0.0028310003172265824, -0.0028285523620326532, -0.0028227991339264662, -0.002821301999418367, -0.0028187860354825425, -0.002818394309477455, -0.0027999698544829642, -0.002738819978390591, -0.002738819978390591, -0.002737352446843641, -0.0027289001315012155, -0.0027150718622818144, -0.0027108929189364915, -0.002710592880091026, -0.0027003704872425203, -0.002695297352353846, -0.002692599337361271, -0.0026925788883051336, -0.002692578121547099, -0.002661043680224151, -0.002648491610679016, -0.002648364538278014, -0.0026397894358763494, -0.002637037364025371, -0.002631771007351102, -0.0026312461863438274, -0.002629982214177784, -0.002608974976669211, -0.0026085771618688048, -0.0026043685477077647, -0.002598618171601327, -0.0025971639463256615, -0.0025896151228386476, -0.002588823964311512, -0.0025791783073379226, -0.002578231133362049, -0.002578231133362049, -0.002575691589141268, -0.002573058636172081, -0.002573038393007362, -0.002570172347100804, -0.0025683020443699823, -0.0025681263581879355, -0.0025680690875794134, -0.0025679246789201606, -0.0025677678741664457, -0.0025675735181727465, -0.0025673907203958312, -0.002567353270470715, -0.0025673482853966726]