[0.10464346885415307, 0.05793824115315792, 0.04907063685091724, 0.04824373662172693, 0.04447506777609872, 0.042944975375198695, 0.04206605854045435, 0.04108865916529588, 0.04071357948735869, 0.04067442024618988, 0.0406668741536426, 0.03969292624075435, 0.03949538615773733, 0.03945235419719356, 0.03829109844658867, 0.03829109844658867, 0.037725197000297826, 0.03743194857159969, 0.03743194857159969, 0.03743194857159969, 0.036897112250098674, 0.03636173397169704, 0.03494527805809783, 0.0347668533121514, 0.03425092828615023, 0.034199630129245706, 0.0341652773538445, 0.03411980784835039, 0.03410864079386927, 0.033053854212766465, 0.033027001414617396, 0.03294205155356961, 0.03288784536375372, 0.03282969810056441, 0.03280657949375948, 0.03250427900201557, 0.032497887365523004, 0.03238791072521913, 0.03217812728011932, 0.031724559166604605, 0.031564851141546, 0.030993924528729122, 0.030976735332251818, 0.030910140341574743, 0.030867925468327895, 0.030838862130394273, 0.030834886689035057, 0.030829681920749363, 0.030689831517839165, 0.03061933077220131, 0.030615714073383545, 0.030600586135142778, 0.030408074817706195, 0.030338395649187562, 0.03033003884806979, 0.03027955121829157, 0.03025288254170894, 0.03025227510838752, 0.030247270202699413, 0.030237635263211386, 0.03020550122923899, 0.030204389721212036, 0.030198781811441706, 0.030197391043066575, 0.03017580225227951, 0.030173132425580233, 0.030172617970811673, 0.0300857411993562, 0.030037703142769837, 0.029978658108076706, 0.029931800617837276, 0.029637884267641856, 0.0292822837225568, 0.028647984832927027, 0.028473265828101675, 0.02842627035366036, 0.02836713761294391, 0.02835009410423823, 0.02832893166137524, 0.02827337838621475, 0.0282731670676752, 0.028242690252367315, 0.027867013918471302, 0.02775422560330738, 0.02763318698521728, 0.027584194419209628, 0.0270715117730624, 0.027050014461526172, 0.026895659700226955, 0.02689287516970435, 0.026698292595536313, 0.026698292595536313, 0.026698292595536313, 0.0264932378704152, 0.026487791932556307, 0.026433772851266427, 0.02642919886019167, 0.026402556300997262, 0.026363611097583072, 0.026282982236042817, 0.026243518461303194, 0.026242000240888033, 0.026237605522471296, 0.026017798764367453, 0.025958827264875372, 0.02591193340685516, 0.02583494088190315, 0.0257577195635887, 0.025719846872348708, 0.02569179426533004, 0.02560626886275537, 0.025603680046113422, 0.025603680046113422, 0.0256015539694618, 0.025592700569684948, 0.02558958739660562, 0.02558370818160989, 0.025582623270618624, 0.025581537591331707, 0.025562300613418423, 0.025386473101898635, 0.02534043239010541, 0.02534043239010541, 0.0252699064487016, 0.0250673702295527, 0.02504577381947377, 0.025045532883413334, 0.02501969793698584, 0.025010876536870577, 0.02500457369493154, 0.024937274173825363, 0.024933498708523193, 0.024925882915939956, 0.024771031395867074, 0.02454761715103833, 0.02446604361080991, 0.02437355080815924, 0.02437355080815924, 0.02431702770605644, 0.02428049192600175, 0.024167514426303126, 0.023642483016702756, 0.023405256369153322, 0.023032189485968375, 0.023019981695108396, 0.02298090234850166, 0.022965998440633812, 0.022956870277068348, 0.022801246076224125, 0.022776497382040756, 0.022510924652636672, 0.022490766210616596, 0.02246667811374522, 0.022413214397751756, 0.022349366597667026, 0.022339707760296222, 0.022339707760296222, 0.022307193938162013, 0.022212035508495785, 0.02215112235550306, 0.022073759426497884, 0.02206088365601122, 0.02206088365601122, 0.02204994766194842, 0.02199035771460741, 0.021921205849288992, 0.021920099350758858, 0.021910918314610638, 0.021863957930840578, 0.02184746350955221, 0.021737720240857482, 0.021678358649446193, 0.021667783205125045, 0.02165008423768496, 0.021649806856807584, 0.021258370895672358, 0.021227996502389566, 0.02120117417177611, 0.021164790740637127, 0.021140628505932534, 0.02105035369164906, 0.021047438215433055, 0.021017149249715282, 0.020993328577574712, 0.020991446637268006, 0.020991186384222225, 0.020989179415707295, 0.020710942280281107, 0.020609560309245954, 0.020574182973511285, 0.020554363323177914, 0.020484423049644335, 0.020458014699549186, 0.020435113397403858, 0.02042472462505126, 0.020410170068650278, 0.020369778725004527, 0.020350468417169996, 0.020346514478994014, 0.020339032540384015]
[-0.0857027415314464, -0.07595564100515784, -0.07563966954722948, -0.07271361090919334, -0.05935914356100534, -0.054484650960370494, -0.049341394973635336, -0.047857022608071044, -0.047857022608071044, -0.040280327226549034, -0.039789928243487926, -0.03884542301819979, -0.038830299050539585, -0.037184628623589594, -0.03519336650067555, -0.03512206704576837, -0.03453042055144853, -0.034447185691818066, -0.033895832715928026, -0.033393465724885045, -0.03230513563191861, -0.03139530593426845, -0.031344553961674154, -0.03133267967160738, -0.03133262365037173, -0.031326787091814384, -0.031323786444148044, -0.03131744452031218, -0.03131481347674073, -0.03131357218882205, -0.03102020274686788, -0.030419871696978334, -0.030419871696978334, -0.03016552986837314, -0.03016552986837314, -0.030064823004341178, -0.029679588582707077, -0.029430363607969405, -0.029430344249047825, -0.029182302914967276, -0.028940457230675495, -0.028863090334460127, -0.028838060349051363, -0.028808864132577567, -0.028805045540969312, -0.028804471219280446, -0.028615572539167005, -0.028505161812245508, -0.02847633576882956, -0.02832981155941681, -0.028310003172265823, -0.028285523620326533, -0.028227991339264662, -0.028213019994183672, -0.028187860354825425, -0.028183943094774552, -0.027999698544829643, -0.02738819978390591, -0.02738819978390591, -0.027373524468436407, -0.027289001315012155, -0.027150718622818145, -0.027108929189364916, -0.02710592880091026, -0.027003704872425205, -0.02695297352353846, -0.02692599337361271, -0.026925788883051336, -0.02692578121547099, -0.02661043680224151, -0.026484916106790157, -0.02648364538278014, -0.026397894358763493, -0.02637037364025371, -0.02631771007351102, -0.026312461863438275, -0.02629982214177784, -0.026089749766692108, -0.026085771618688046, -0.026043685477077645, -0.02598618171601327, -0.025971639463256615, -0.025896151228386476, -0.025888239643115117, -0.025791783073379225, -0.02578231133362049, -0.02578231133362049, -0.02575691589141268, -0.025730586361720813, -0.02573038393007362, -0.02570172347100804, -0.02568302044369982, -0.025681263581879353, -0.025680690875794134, -0.025679246789201606, -0.025677678741664458, -0.025675735181727465, -0.02567390720395831, -0.02567353270470715, -0.025673482853966725, -0.025599746193848135, -0.025360690386378722, -0.025323713213083847, -0.025156137257227255, -0.02506504632788203, -0.025054727170982387, -0.025053403868014742, -0.025052921567067114, -0.025048162290318417, -0.024893926766015186, -0.02474193486363028, -0.02443609771784773, -0.024429256316802053, -0.02442525811488318, -0.02442248682450023, -0.024277067092259942, -0.024098526879459216, -0.024033974965482572, -0.02390378910444078, -0.02380121672216582, -0.023798318461320283, -0.023795891277575625, -0.02379463976266436, -0.02327502108367447, -0.02321324465270331, -0.023170748723925168, -0.02275150240914206, -0.02272216149888243, -0.02272216149888243, -0.0226271966969083, -0.022594159885756304, -0.02255645335137649, -0.022549572269076976, -0.022340575449749482, -0.022286350409626836, -0.022225356728285184, -0.02220217191845142, -0.02214132601167226, -0.022113748675309686, -0.022077913147046817, -0.02206807079548445, -0.022025266875261074, -0.022004830114582652, -0.021960342943384906, -0.021933180660397844, -0.02192765570745825, -0.0219163440644653, -0.021916245773880738, -0.021900800040572536, -0.021899283656432872, -0.02183313346739083, -0.021793689437061232, -0.021740576850965296, -0.021695757850654078, -0.02166055551987854, -0.021611179047079404, -0.021562936886960288, -0.02151431796320399, -0.02142050010862167, -0.02139909279886784, -0.021354090549914745, -0.021345748260694436, -0.021306142534934097, -0.021291499368397, -0.021291395863352464, -0.021290747681314642, -0.021290273023845757, -0.02129027129657321, -0.021160743590559465, -0.02106231181661005, -0.021062266838453372, -0.021008460475247008, -0.02094973788026127, -0.02091963136463764, -0.020888977858885785, -0.02086583680484782, -0.020826547317671244, -0.020759967285090712, -0.02073601757566084, -0.02073560980916827, -0.020733724994176188, -0.02071818669920194, -0.020701908450252264, -0.020692785772621503, -0.020692289459663327, -0.020681960686676208, -0.020681960686676208, -0.020681451042225123, -0.020680476093008653, -0.020676931488384613, -0.02067374358394463, -0.020671899034101982, -0.020670968963446827, -0.020668921377097464, -0.02066807060710434, -0.020667219430794463, -0.02066719681598133, -0.02066669964229422, -0.02066399727043549, -0.020615657034977933]