[0.01034885963699857, 0.005412928735962877, 0.005165278862847405, 0.0050047749724707324, 0.004928879404771886, 0.004300531709898076, 0.004297977479823043, 0.004270014687286919, 0.004203635905819123, 0.004181852247515803, 0.004136745789488096, 0.004121248174795761, 0.004121248174795761, 0.004017820343774993, 0.003914320880335683, 0.003903832678860095, 0.003839237265414366, 0.003810652553058063, 0.0038046447035204553, 0.003798335969147149, 0.0037441792263921986, 0.003738745713394994, 0.003719644721873529, 0.0036836379199612825, 0.0036074797359917773, 0.003582822778055275, 0.00356710568484401, 0.003550704585348157, 0.0035485951440990147, 0.0035189412541234573, 0.0034588934399038293, 0.003452480135445384, 0.003389640058583481, 0.0033875859669991013, 0.0033740666091092108, 0.0033725243287225197, 0.0033651256780902797, 0.0033644537885323344, 0.0033629387478925463, 0.0033616961423721106, 0.0033550187457934196, 0.003342197119662032, 0.0033409091711181275, 0.0033400783327013953, 0.003339985738864797, 0.0033399843496116403, 0.0033396585239078005, 0.003339654441731781, 0.0033396199968027387, 0.0033394807739799575, 0.0033394807739799575, 0.0032758299094041983, 0.003272467352513847, 0.0032712633248650645, 0.0032692106848174417, 0.003267664363380679, 0.0032674259371618217, 0.003266024123519234, 0.0032658949759991783, 0.003264968286845321, 0.0032645706323876918, 0.0032638817541567884, 0.0032636632629021887, 0.0032635516117154035, 0.0032635453686538692, 0.0032157046713334916, 0.0031935147064584947, 0.0031893030196668173, 0.0031879245545722136, 0.0031877326142078113, 0.0031520943106836353, 0.003130055749794536, 0.0031122362269281733, 0.00311172198776883, 0.003061047326683993, 0.002931045676176478, 0.002887891721637612, 0.002887139785978985, 0.002885989967488609, 0.0028854438468430142, 0.0028692585599773292, 0.002849309550712489, 0.002738304881982477, 0.0027327297087463387, 0.0027322749680177105, 0.002695947182101822, 0.002688377130348022, 0.0026437283095136943, 0.0026192331564828713, 0.002605140169353849, 0.0025624902753323977, 0.002539843758305228, 0.002527441253119986, 0.0025138460487394787, 0.0025122056382232538, 0.002510559255998391, 0.002504777176150942, 0.002504765649988162, 0.0024617198575344616, 0.002452211139652129]
[-0.009430599192167134, -0.007805096273572454, -0.007805096273572454, -0.007805096273572454, -0.006561863519559865, -0.006481205859442713, -0.0061327089642000295, -0.005957640689205962, -0.005866763084682598, -0.005839758585114071, -0.005830780158217304, -0.00577305605859344, -0.005600667819144087, -0.0055827309440879885, -0.005578266868748117, -0.005578266868748117, -0.005494814793841252, -0.005468921244555797, -0.005395405480434457, -0.00539516893032127, -0.0053555372589508266, -0.005354760035587824, -0.005320627382523804, -0.005277771850729708, -0.005241711453187393, -0.005241711453187393, -0.0051947982055465265, -0.0051757107220629095, -0.005155955039067588, -0.005151535696266642, -0.005133972039312365, -0.005116688820377981, -0.004903715632958732, -0.004749794247276947, -0.004647486124812501, -0.0045968377677238804, -0.004532761819936211, -0.004521671983757953, -0.004358855854349298, -0.004332195270038239, -0.004312213525921135, -0.004276343501363123, -0.00427383042052778, -0.004183984002967702, -0.004173735569861824, -0.004173735569861824, -0.004164455027746363, -0.004113074237820308, -0.004045761838793849, -0.004010122702394948, -0.0039656580314564325, -0.00393064735269002, -0.003926725360499806, -0.0038350314879324484, -0.0038123455124985067, -0.0037660542618871587, -0.003743685896564688, -0.0036973119381019924, -0.003689874157147546, -0.0036897193807943897, -0.00363916671422196, -0.0035968163428479116, -0.003571063217656071, -0.0035708400644907912, -0.0034796541300059214, -0.003472034642418559, -0.0034591542690197083, -0.0034578057568598153, -0.0034523606402746365, -0.0034510885848323225, -0.0034508958818907187, -0.003446016632897492, -0.003412881072090651, -0.00339001957670943, -0.0033664400461750955, -0.003360418053289588, -0.0033602858724228026, -0.00335273230064585, -0.0033495692439649174, -0.003347752619247596, -0.003340798873050782, -0.003339839642085546, -0.0033331684458792477, -0.0033328450011870627, -0.003332453054945556, -0.003332015513506387, -0.0033008309278676155, -0.0032218079163634904, -0.0032218079163634904, -0.003215541940610296, -0.003212825141982807, -0.0029761821460367074, -0.0029754599921458878, -0.002975237806091799, -0.0029367579810360314, -0.002855857774460511, -0.0028558049562833017, -0.0027978158212053623, -0.0027893166558002266, -0.002764128533263787]