[0.008372833632208684, 0.008103473362848416, 0.00802712549816077, 0.005695359589977298, 0.005367248108491352, 0.005214581543121878, 0.004759054395843688, 0.004593569288008319, 0.004388694116837988, 0.004384898557523676, 0.00435765362377412, 0.004352890630973888, 0.004344713322391816, 0.004332194308844799, 0.004317558490183608, 0.004316188026459593, 0.0043117433635051095, 0.004310285129131323, 0.004309950226465724, 0.004309950226465724, 0.004309950226465724, 0.004199874550111983, 0.004188400418796502, 0.004184351369484486, 0.00418286584885993, 0.004180335910358391, 0.004175709391982875, 0.004175709102308812, 0.004164659104565543, 0.004051673522314901, 0.004043531634431362, 0.00404053146201011, 0.004034160053238324, 0.003973376998584857, 0.003963922383044206, 0.003935136711175919, 0.0038138076377662563, 0.0038004496537450004, 0.0037469208502659097, 0.003637527091309479, 0.0036328674602809914, 0.0036328674602809914, 0.0035760772446774497, 0.0035733930624228523, 0.003572874761764993, 0.0035694791676614984, 0.0035693151095283755, 0.0035690848035396954, 0.0034463969178761215, 0.003383052039845231, 0.0033649810729234775, 0.003348023606782157, 0.0033458409126301595, 0.0033265595717562584, 0.003321376040794258, 0.003306688400448842, 0.003302527433630097, 0.003301434214995901, 0.0033009428382915974, 0.003300926536872361, 0.003291356676831993, 0.003291356676831993, 0.0032750797249444996, 0.0032535987166744298, 0.003245979190496565, 0.0032420777703645407, 0.003234412886440533, 0.0032338058631193245, 0.00320917995151145, 0.0032064278435858878, 0.003189763825524737, 0.003174895074356486, 0.0031713548405229225, 0.00316148698890052, 0.0031176817659421935, 0.0031017265353135873, 0.003099456513794423, 0.0030985259051327877, 0.0030977229940127977, 0.0030621354061144386, 0.0030487973125700885, 0.0030347591345684507, 0.0030254482350277694, 0.0029858427355497126, 0.0029858427355497126, 0.0029837047055911252, 0.0029830705593189206, 0.002981610388130693, 0.0029815156144171935, 0.0029736947436025812, 0.00297310380705986, 0.002971564939114077, 0.002969605055156907, 0.0029684331264865334, 0.00296835670564852, 0.0029682774861134104, 0.00296378299130757, 0.00296311661059909, 0.002949005706060949, 0.002949005706060949]
[-0.008885727282663694, -0.006738592568306609, -0.005355943953693674, -0.005176604047744624, -0.005176604047744624, -0.005176604047744624, -0.005171487499468878, -0.005161598279505782, -0.005047187341918067, -0.005022184660229299, -0.005014863753113217, -0.005001410800107584, -0.004939332023743879, -0.004939312621902678, -0.004927307912009857, -0.004900618850338232, -0.004888599614464637, -0.004866344164879719, -0.004797054523521658, -0.0047969751319101505, -0.004794391038092292, -0.004791686966643758, -0.0047891803160951185, -0.0047890908178829, -0.004789020712627255, -0.004652383954610092, -0.004645542500449925, -0.004643284313872106, -0.004551863004931548, -0.004509843739521831, -0.004497642998337189, -0.004497084891642818, -0.004490084318110395, -0.004477237699704179, -0.004416853550264417, -0.004340708857027326, -0.004340560714937798, -0.004308895547911905, -0.004295931155415657, -0.004146275363736519, -0.0041037582818266, -0.004041482403691904, -0.004039634519948802, -0.004039634519948802, -0.004039634519948802, -0.0039788496900234616, -0.003966569377829482, -0.003879742384925865, -0.003879742384925865, -0.00384947597814361, -0.0036577344194960015, -0.003636916607492336, -0.003616641687008851, -0.003616641687008851, -0.0035999098810549557, -0.0035998081900885525, -0.0035992679800671257, -0.0035971447046591865, -0.003596050681122179, -0.003593389284984042, -0.0035917410640593206, -0.003551845592710748, -0.003551845592710748, -0.003530063691512645, -0.0035235926330715516, -0.0035177869172075805, -0.0034946131604105236, -0.0034650038560816087, -0.003460784438039269, -0.003454514755549468, -0.0034535224808227272, -0.003449234118716419, -0.0034438865592623246, -0.0034422159203249124, -0.0033683169412462768, -0.00334753702748928, -0.0033139463438921404, -0.003300857778717883, -0.0032942558694550564, -0.0032940746731903083, -0.0032936805002783975, -0.0032278504242436185, -0.003196267237559528, -0.00311866313774073, -0.0030910526466526042, -0.0030840454813772, -0.003074687807986555, -0.0030732684909365324, -0.0030728948850649593, -0.0030685808413748582, -0.0030684792903796897, -0.0029936160044187103, -0.002993283327673181, -0.0029931190619454057, -0.0029346288443680042, -0.0029304702387408575, -0.0029189788360755153, -0.0028977300328378447, -0.0028634547081214496, -0.0028515292316928626]