[0.1034885963699857, 0.05412928735962877, 0.051652788628474056, 0.050047749724707324, 0.04928879404771886, 0.043005317098980755, 0.04297977479823043, 0.04270014687286919, 0.042036359058191225, 0.04181852247515803, 0.041367457894880964, 0.041212481747957615, 0.041212481747957615, 0.04017820343774993, 0.039143208803356824, 0.039038326788600954, 0.03839237265414366, 0.03810652553058063, 0.03804644703520455, 0.03798335969147149, 0.03744179226392198, 0.03738745713394994, 0.03719644721873529, 0.03683637919961283, 0.036074797359917775, 0.03582822778055275, 0.0356710568484401, 0.03550704585348157, 0.03548595144099015, 0.035189412541234574, 0.03458893439903829, 0.03452480135445384, 0.03389640058583481, 0.033875859669991015, 0.03374066609109211, 0.0337252432872252, 0.0336512567809028, 0.033644537885323345, 0.033629387478925465, 0.03361696142372111, 0.0335501874579342, 0.03342197119662032, 0.033409091711181275, 0.033400783327013954, 0.03339985738864797, 0.0333998434961164, 0.03339658523907801, 0.03339654441731781, 0.03339619996802739, 0.033394807739799574, 0.033394807739799574, 0.03275829909404198, 0.03272467352513847, 0.03271263324865065, 0.03269210684817442, 0.03267664363380679, 0.03267425937161822, 0.032660241235192344, 0.032658949759991784, 0.03264968286845321, 0.032645706323876915, 0.03263881754156788, 0.03263663262902189, 0.03263551611715403, 0.032635453686538696, 0.032157046713334914, 0.031935147064584946, 0.03189303019666817, 0.031879245545722135, 0.03187732614207811, 0.031520943106836355, 0.03130055749794536, 0.031122362269281733, 0.0311172198776883, 0.03061047326683993, 0.02931045676176478, 0.028878917216376122, 0.02887139785978985, 0.02885989967488609, 0.02885443846843014, 0.028692585599773293, 0.02849309550712489, 0.02738304881982477, 0.027327297087463388, 0.027322749680177106, 0.02695947182101822, 0.02688377130348022, 0.026437283095136942, 0.02619233156482871, 0.02605140169353849, 0.025624902753323978, 0.02539843758305228, 0.025274412531199858, 0.025138460487394786, 0.025122056382232538, 0.025105592559983913, 0.02504777176150942, 0.025047656499881624, 0.024617198575344616, 0.02452211139652129, 0.02452211139652129, 0.024041855222347384, 0.023979491563548526, 0.023901834497855948, 0.02375650117722293, 0.02375650117722293, 0.023727286077954067, 0.02365298974680454, 0.023459186585779515, 0.02328289954535892, 0.02328289954535892, 0.02328289954535892, 0.023200724181572402, 0.022889556569191588, 0.02280596688657413, 0.02277891536820123, 0.02265372565021806, 0.022542090067537032, 0.02222873021187047, 0.022168997976573852, 0.02204663956094669, 0.02204304854117004, 0.021829069412735255, 0.02172231114930749, 0.021490084803205182, 0.021425125533671083, 0.021425125533671083, 0.02131395076397151, 0.02130147824830768, 0.02130147824830768, 0.021290730454740545, 0.02126419116742166, 0.021260553688836656, 0.021258097087258496, 0.021254179225326728, 0.021251485242163956, 0.021197460747331576, 0.02088329671504928, 0.020853022152565615, 0.020700943389798714, 0.0206824606530212, 0.020649552442606738, 0.02058619306173242, 0.020539699889028644, 0.02052552360966402, 0.020518218828343752, 0.020518218828343752, 0.020516540575969345, 0.02049736465643619, 0.02049557450165267, 0.020461465649882996, 0.020211104488576492, 0.020075874020404616, 0.020075874020404616, 0.020063477986137116, 0.01998111509232267, 0.01992760551656919, 0.01915289249054016, 0.019143565757427098, 0.019141624400968397, 0.019114438571146423, 0.019040434275107657, 0.019035869586683078, 0.019035869586683078, 0.019022496351122357, 0.01900515996329483, 0.019004420580482077, 0.019002650592834073, 0.01899470730621539, 0.018994091803856975, 0.018978909371422163, 0.018978032570326434, 0.018977757785601682, 0.018974742606028997, 0.01897421118207882, 0.018732815249622305, 0.018331641945742504, 0.018294404649854844, 0.018291749027356943, 0.018254439328079314, 0.018244141310397154, 0.018222380469300987, 0.018219621628368387, 0.017993305793397345, 0.017883935604690777, 0.017852003697156647, 0.017848763189026357, 0.017841985783385344, 0.017833039640895297, 0.017794341342009128, 0.017794341342009128, 0.01778750669848148, 0.017715097095565145, 0.01769410744214358, 0.017649272511111775, 0.017615096828880922, 0.01760535117842184, 0.017587404257714954, 0.017525735911253577, 0.01751446356479821]
[-0.09430599192167134, -0.07805096273572454, -0.07805096273572454, -0.07805096273572454, -0.06561863519559866, -0.06481205859442712, -0.061327089642000295, -0.059576406892059626, -0.05866763084682598, -0.058397585851140715, -0.05830780158217304, -0.057730560585934405, -0.05600667819144087, -0.05582730944087989, -0.05578266868748117, -0.05578266868748117, -0.05494814793841252, -0.05468921244555797, -0.053954054804344564, -0.0539516893032127, -0.053555372589508266, -0.053547600355878244, -0.05320627382523804, -0.05277771850729708, -0.05241711453187393, -0.05241711453187393, -0.05194798205546526, -0.051757107220629095, -0.051559550390675876, -0.05151535696266642, -0.05133972039312365, -0.05116688820377981, -0.049037156329587314, -0.04749794247276947, -0.046474861248125006, -0.045968377677238804, -0.04532761819936211, -0.045216719837579536, -0.04358855854349298, -0.04332195270038239, -0.04312213525921135, -0.04276343501363123, -0.0427383042052778, -0.041839840029677014, -0.041737355698618236, -0.041737355698618236, -0.04164455027746364, -0.04113074237820308, -0.04045761838793849, -0.040101227023949484, -0.03965658031456432, -0.0393064735269002, -0.03926725360499806, -0.038350314879324485, -0.038123455124985065, -0.037660542618871584, -0.03743685896564688, -0.03697311938101992, -0.03689874157147546, -0.036897193807943894, -0.0363916671422196, -0.03596816342847912, -0.03571063217656071, -0.03570840064490791, -0.034796541300059214, -0.03472034642418559, -0.03459154269019708, -0.03457805756859815, -0.03452360640274636, -0.03451088584832322, -0.034508958818907184, -0.03446016632897492, -0.03412881072090651, -0.0339001957670943, -0.033664400461750954, -0.03360418053289588, -0.033602858724228024, -0.0335273230064585, -0.03349569243964917, -0.03347752619247596, -0.03340798873050782, -0.03339839642085546, -0.03333168445879248, -0.033328450011870625, -0.033324530549455555, -0.03332015513506387, -0.03300830927867615, -0.03221807916363491, -0.03221807916363491, -0.03215541940610296, -0.03212825141982807, -0.029761821460367075, -0.029754599921458878, -0.029752378060917992, -0.029367579810360315, -0.028558577744605112, -0.02855804956283302, -0.027978158212053624, -0.027893166558002266, -0.02764128533263787, -0.027564210007685268, -0.02741614211655318, -0.02741614211655318, -0.027380279588132488, -0.027375685914111762, -0.027373288877615358, -0.027368932244744012, -0.027368874367115985, -0.02736831130150407, -0.027161760267219552, -0.02714921288974209, -0.027141740743109825, -0.027032347669184845, -0.027032347669184845, -0.026583769265135615, -0.026583769265135615, -0.026583769265135615, -0.026383510333408473, -0.02625764010111276, -0.026222670466387047, -0.026190780769075776, -0.02619055096704948, -0.026178689152407845, -0.026178684535755895, -0.025936898425764878, -0.025781065237126363, -0.025272844370512925, -0.025203785011719618, -0.02486237906812086, -0.024577344476517063, -0.02358750597321592, -0.023133220924860178, -0.02295181279150241, -0.02295181279150241, -0.022869762603290687, -0.02269880262865157, -0.022683928875990054, -0.022640999070786014, -0.02264041461857672, -0.022626578995909617, -0.022625892267383128, -0.022623446109532628, -0.022616337887297812, -0.022086688526556972, -0.021705891214893344, -0.021622270438471022, -0.021612043177825543, -0.021556333804270397, -0.02146266913224841, -0.021443307659879937, -0.021438403367952705, -0.021432052782089303, -0.021428747062615147, -0.021425489838762732, -0.021423741043250774, -0.021420226153865005, -0.021420226153865005, -0.0214191722917723, -0.02141886262747099, -0.020809760252848253, -0.020735352602477004, -0.02067074117916262, -0.02051582613463216, -0.02036415199949032, -0.020309391185253378, -0.020309391185253378, -0.02029065499776833, -0.020271859729507458, -0.020260900227401624, -0.020254513391807893, -0.02023383147637786, -0.020229574923962435, -0.020229206828264512, -0.020228497524733047, -0.020138843170988192, -0.01999489574196451, -0.01999489574196451, -0.01999489574196451, -0.019555824511781547, -0.019544376304528495, -0.019539919856276136, -0.01930003390267194, -0.01913422040202823, -0.01909893566608669, -0.019070190279725292, -0.01906445754726411, -0.019063470379895815, -0.01904245165902358, -0.0190401604640636, -0.019038966268586872, -0.019038849069024817, -0.019038789356178594, -0.01903875028734154, -0.019038666039838344, -0.018542837688893504, -0.01820050039068652, -0.018150983133547433, -0.018001747782982542, -0.01797679702547624, -0.017939164361159905]